<?xml version="1.0"?>
<opencv_storage>
<cascade>
  <stageType>BOOST</stageType>
  <featureType>HAAR</featureType>
  <height>50</height>
  <width>25</width>
  <stageParams>
    <boostType>GAB</boostType>
    <minHitRate>9.9500000476837158e-01</minHitRate>
    <maxFalseAlarm>5.0000000000000000e-01</maxFalseAlarm>
    <weightTrimRate>9.4999998807907104e-01</weightTrimRate>
    <maxDepth>1</maxDepth>
    <maxWeakCount>100</maxWeakCount></stageParams>
  <featureParams>
    <maxCatCount>0</maxCatCount>
    <featSize>1</featSize>
    <mode>BASIC</mode></featureParams>
  <stageNum>12</stageNum>
  <stages>
    <!-- stage 0 -->
    <_>
      <maxWeakCount>2</maxWeakCount>
      <stageThreshold>-2.2382766008377075e-01</stageThreshold>
      <weakClassifiers>
        <_>
          <internalNodes>
            0 -1 24 -3.4867517650127411e-02</internalNodes>
          <leafValues>
            8.9333331584930420e-01 -9.4098359346389771e-01</leafValues></_>
        <_>
          <internalNodes>
            0 -1 8 -4.2679563164710999e-02</internalNodes>
          <leafValues>
            7.1715593338012695e-01 -1.</leafValues></_></weakClassifiers></_>
    <!-- stage 1 -->
    <_>
      <maxWeakCount>2</maxWeakCount>
      <stageThreshold>-1.8089708685874939e-01</stageThreshold>
      <weakClassifiers>
        <_>
          <internalNodes>
            0 -1 11 3.5301975905895233e-02</internalNodes>
          <leafValues>
            -8.8607597351074219e-01 9.3750000000000000e-01</leafValues></_>
        <_>
          <internalNodes>
            0 -1 7 6.1006493866443634e-02</internalNodes>
          <leafValues>
            -9.8001927137374878e-01 7.0517885684967041e-01</leafValues></_></weakClassifiers></_>
    <!-- stage 2 -->
    <_>
      <maxWeakCount>2</maxWeakCount>
      <stageThreshold>-4.8564192652702332e-01</stageThreshold>
      <weakClassifiers>
        <_>
          <internalNodes>
            0 -1 30 1.7996774986386299e-02</internalNodes>
          <leafValues>
            -9.3174064159393311e-01 6.0919541120529175e-01</leafValues></_>
        <_>
          <internalNodes>
            0 -1 5 -1.2840822339057922e-02</internalNodes>
          <leafValues>
            4.4609868526458740e-01 -9.3844878673553467e-01</leafValues></_></weakClassifiers></_>
    <!-- stage 3 -->
    <_>
      <maxWeakCount>3</maxWeakCount>
      <stageThreshold>-1.3631531000137329e+00</stageThreshold>
      <weakClassifiers>
        <_>
          <internalNodes>
            0 -1 28 9.3581452965736389e-03</internalNodes>
          <leafValues>
            -9.7826087474822998e-01 4.8076921701431274e-01</leafValues></_>
        <_>
          <internalNodes>
            0 -1 31 5.8314036577939987e-03</internalNodes>
          <leafValues>
            -9.0402030944824219e-01 5.0229680538177490e-01</leafValues></_>
        <_>
          <internalNodes>
            0 -1 0 -6.0088615864515305e-03</internalNodes>
          <leafValues>
            5.1912802457809448e-01 -9.1315490007400513e-01</leafValues></_></weakClassifiers></_>
    <!-- stage 4 -->
    <_>
      <maxWeakCount>2</maxWeakCount>
      <stageThreshold>-2.6210945844650269e-01</stageThreshold>
      <weakClassifiers>
        <_>
          <internalNodes>
            0 -1 29 3.1886335462331772e-02</internalNodes>
          <leafValues>
            -8.4326016902923584e-01 8.0327868461608887e-01</leafValues></_>
        <_>
          <internalNodes>
            0 -1 16 -1.0144878178834915e-01</internalNodes>
          <leafValues>
            5.8115071058273315e-01 -9.4858831167221069e-01</leafValues></_></weakClassifiers></_>
    <!-- stage 5 -->
    <_>
      <maxWeakCount>3</maxWeakCount>
      <stageThreshold>-9.0205955505371094e-01</stageThreshold>
      <weakClassifiers>
        <_>
          <internalNodes>
            0 -1 13 -4.3060854077339172e-02</internalNodes>
          <leafValues>
            8.1818181276321411e-01 -8.1538462638854980e-01</leafValues></_>
        <_>
          <internalNodes>
            0 -1 20 -5.2681256085634232e-02</internalNodes>
          <leafValues>
            7.3522281646728516e-01 -7.6554048061370850e-01</leafValues></_>
        <_>
          <internalNodes>
            0 -1 21 2.4374704807996750e-02</internalNodes>
          <leafValues>
            -6.9698643684387207e-01 6.7886555194854736e-01</leafValues></_></weakClassifiers></_>
    <!-- stage 6 -->
    <_>
      <maxWeakCount>2</maxWeakCount>
      <stageThreshold>-5.3408259153366089e-01</stageThreshold>
      <weakClassifiers>
        <_>
          <internalNodes>
            0 -1 1 -3.0954014509916306e-02</internalNodes>
          <leafValues>
            6.4705884456634521e-01 -8.4615385532379150e-01</leafValues></_>
        <_>
          <internalNodes>
            0 -1 2 -6.8676029331982136e-03</internalNodes>
          <leafValues>
            3.1207126379013062e-01 -9.7974222898483276e-01</leafValues></_></weakClassifiers></_>
    <!-- stage 7 -->
    <_>
      <maxWeakCount>3</maxWeakCount>
      <stageThreshold>-9.8098921775817871e-01</stageThreshold>
      <weakClassifiers>
        <_>
          <internalNodes>
            0 -1 26 3.9539322257041931e-02</internalNodes>
          <leafValues>
            -8.0745339393615723e-01 6.8965518474578857e-01</leafValues></_>
        <_>
          <internalNodes>
            0 -1 10 -1.3535521924495697e-02</internalNodes>
          <leafValues>
            7.2698169946670532e-01 -7.3552286624908447e-01</leafValues></_>
        <_>
          <internalNodes>
            0 -1 6 -1.7528031021356583e-02</internalNodes>
          <leafValues>
            5.6198704242706299e-01 -7.0080828666687012e-01</leafValues></_></weakClassifiers></_>
    <!-- stage 8 -->
    <_>
      <maxWeakCount>3</maxWeakCount>
      <stageThreshold>-1.1174093484878540e+00</stageThreshold>
      <weakClassifiers>
        <_>
          <internalNodes>
            0 -1 4 -1.7587708309292793e-02</internalNodes>
          <leafValues>
            8.6956518888473511e-01 -7.7844309806823730e-01</leafValues></_>
        <_>
          <internalNodes>
            0 -1 17 -2.3244120180606842e-02</internalNodes>
          <leafValues>
            5.3422462940216064e-01 -8.5079938173294067e-01</leafValues></_>
        <_>
          <internalNodes>
            0 -1 25 1.0767106432467699e-03</internalNodes>
          <leafValues>
            5.1867693662643433e-01 -8.7319087982177734e-01</leafValues></_></weakClassifiers></_>
    <!-- stage 9 -->
    <_>
      <maxWeakCount>3</maxWeakCount>
      <stageThreshold>-1.1734267473220825e+00</stageThreshold>
      <weakClassifiers>
        <_>
          <internalNodes>
            0 -1 22 -9.2532373964786530e-03</internalNodes>
          <leafValues>
            3.8461539149284363e-01 -9.4202899932861328e-01</leafValues></_>
        <_>
          <internalNodes>
            0 -1 18 1.9229338504374027e-03</internalNodes>
          <leafValues>
            -8.2952797412872314e-01 4.5197543501853943e-01</leafValues></_>
        <_>
          <internalNodes>
            0 -1 23 5.0785118946805596e-04</internalNodes>
          <leafValues>
            7.1355766057968140e-01 -6.8337315320968628e-01</leafValues></_></weakClassifiers></_>
    <!-- stage 10 -->
    <_>
      <maxWeakCount>5</maxWeakCount>
      <stageThreshold>-8.2157373428344727e-01</stageThreshold>
      <weakClassifiers>
        <_>
          <internalNodes>
            0 -1 9 1.5631096437573433e-02</internalNodes>
          <leafValues>
            -7.7313435077667236e-01 8.6666667461395264e-01</leafValues></_>
        <_>
          <internalNodes>
            0 -1 19 4.8303600400686264e-02</internalNodes>
          <leafValues>
            -5.2913361787796021e-01 9.8356753587722778e-01</leafValues></_>
        <_>
          <internalNodes>
            0 -1 27 -3.4227307885885239e-02</internalNodes>
          <leafValues>
            5.3565847873687744e-01 -7.1971088647842407e-01</leafValues></_>
        <_>
          <internalNodes>
            0 -1 15 1.1057993397116661e-02</internalNodes>
          <leafValues>
            -8.1047779321670532e-01 5.2232557535171509e-01</leafValues></_>
        <_>
          <internalNodes>
            0 -1 14 -1.2748290784657001e-02</internalNodes>
          <leafValues>
            7.5551348924636841e-01 -4.8879739642143250e-01</leafValues></_></weakClassifiers></_>
    <!-- stage 11 -->
    <_>
      <maxWeakCount>3</maxWeakCount>
      <stageThreshold>-1.1574985980987549e+00</stageThreshold>
      <weakClassifiers>
        <_>
          <internalNodes>
            0 -1 3 -2.4136388674378395e-02</internalNodes>
          <leafValues>
            1. -7.9104477167129517e-01</leafValues></_>
        <_>
          <internalNodes>
            0 -1 32 -6.2026549130678177e-04</internalNodes>
          <leafValues>
            -8.3526337146759033e-01 6.5653705596923828e-01</leafValues></_>
        <_>
          <internalNodes>
            0 -1 12 2.5807420024648309e-04</internalNodes>
          <leafValues>
            -8.6785751581192017e-01 4.6880957484245300e-01</leafValues></_></weakClassifiers></_></stages>
  <features>
    <_>
      <rects>
        <_>
          0 3 6 9 -1.</_>
        <_>
          3 3 3 9 2.</_></rects>
      <tilted>0</tilted></_>
    <_>
      <rects>
        <_>
          0 12 12 7 -1.</_>
        <_>
          4 12 4 7 3.</_></rects>
      <tilted>0</tilted></_>
    <_>
      <rects>
        <_>
          0 46 12 3 -1.</_>
        <_>
          6 46 6 3 2.</_></rects>
      <tilted>0</tilted></_>
    <_>
      <rects>
        <_>
          1 3 11 12 -1.</_>
        <_>
          1 7 11 4 3.</_></rects>
      <tilted>0</tilted></_>
    <_>
      <rects>
        <_>
          1 18 19 6 -1.</_>
        <_>
          1 20 19 2 3.</_></rects>
      <tilted>0</tilted></_>
    <_>
      <rects>
        <_>
          1 42 8 8 -1.</_>
        <_>
          5 42 4 8 2.</_></rects>
      <tilted>0</tilted></_>
    <_>
      <rects>
        <_>
          2 5 9 14 -1.</_>
        <_>
          5 5 3 14 3.</_></rects>
      <tilted>0</tilted></_>
    <_>
      <rects>
        <_>
          2 9 19 14 -1.</_>
        <_>
          2 16 19 7 2.</_></rects>
      <tilted>0</tilted></_>
    <_>
      <rects>
        <_>
          3 22 18 16 -1.</_>
        <_>
          9 22 6 16 3.</_></rects>
      <tilted>0</tilted></_>
    <_>
      <rects>
        <_>
          4 15 10 4 -1.</_>
        <_>
          9 15 5 4 2.</_></rects>
      <tilted>0</tilted></_>
    <_>
      <rects>
        <_>
          4 24 6 4 -1.</_>
        <_>
          7 24 3 4 2.</_></rects>
      <tilted>0</tilted></_>
    <_>
      <rects>
        <_>
          5 5 1 45 -1.</_>
        <_>
          5 20 1 15 3.</_></rects>
      <tilted>0</tilted></_>
    <_>
      <rects>
        <_>
          5 7 4 9 -1.</_>
        <_>
          7 7 2 9 2.</_></rects>
      <tilted>0</tilted></_>
    <_>
      <rects>
        <_>
          5 12 8 20 -1.</_>
        <_>
          5 12 4 10 2.</_>
        <_>
          9 22 4 10 2.</_></rects>
      <tilted>0</tilted></_>
    <_>
      <rects>
        <_>
          5 16 14 9 -1.</_>
        <_>
          5 19 14 3 3.</_></rects>
      <tilted>0</tilted></_>
    <_>
      <rects>
        <_>
          5 24 8 26 -1.</_>
        <_>
          5 24 4 13 2.</_>
        <_>
          9 37 4 13 2.</_></rects>
      <tilted>0</tilted></_>
    <_>
      <rects>
        <_>
          7 1 18 49 -1.</_>
        <_>
          13 1 6 49 3.</_></rects>
      <tilted>0</tilted></_>
    <_>
      <rects>
        <_>
          8 2 7 15 -1.</_>
        <_>
          8 7 7 5 3.</_></rects>
      <tilted>0</tilted></_>
    <_>
      <rects>
        <_>
          8 10 12 16 -1.</_>
        <_>
          8 10 6 8 2.</_>
        <_>
          14 18 6 8 2.</_></rects>
      <tilted>0</tilted></_>
    <_>
      <rects>
        <_>
          8 20 10 14 -1.</_>
        <_>
          8 27 10 7 2.</_></rects>
      <tilted>0</tilted></_>
    <_>
      <rects>
        <_>
          8 26 15 15 -1.</_>
        <_>
          8 31 15 5 3.</_></rects>
      <tilted>0</tilted></_>
    <_>
      <rects>
        <_>
          9 15 14 12 -1.</_>
        <_>
          9 15 7 6 2.</_>
        <_>
          16 21 7 6 2.</_></rects>
      <tilted>0</tilted></_>
    <_>
      <rects>
        <_>
          10 23 12 26 -1.</_>
        <_>
          10 23 6 13 2.</_>
        <_>
          16 36 6 13 2.</_></rects>
      <tilted>0</tilted></_>
    <_>
      <rects>
        <_>
          10 36 2 14 -1.</_>
        <_>
          10 43 2 7 2.</_></rects>
      <tilted>0</tilted></_>
    <_>
      <rects>
        <_>
          12 12 9 22 -1.</_>
        <_>
          15 12 3 22 3.</_></rects>
      <tilted>0</tilted></_>
    <_>
      <rects>
        <_>
          14 24 4 15 -1.</_>
        <_>
          16 24 2 15 2.</_></rects>
      <tilted>0</tilted></_>
    <_>
      <rects>
        <_>
          15 22 9 18 -1.</_>
        <_>
          18 22 3 18 3.</_></rects>
      <tilted>0</tilted></_>
    <_>
      <rects>
        <_>
          17 3 8 32 -1.</_>
        <_>
          17 3 4 16 2.</_>
        <_>
          21 19 4 16 2.</_></rects>
      <tilted>0</tilted></_>
    <_>
      <rects>
        <_>
          17 10 8 5 -1.</_>
        <_>
          21 10 4 5 2.</_></rects>
      <tilted>0</tilted></_>
    <_>
      <rects>
        <_>
          17 14 6 21 -1.</_>
        <_>
          19 14 2 21 3.</_></rects>
      <tilted>0</tilted></_>
    <_>
      <rects>
        <_>
          19 23 6 26 -1.</_>
        <_>
          19 23 3 13 2.</_>
        <_>
          22 36 3 13 2.</_></rects>
      <tilted>0</tilted></_>
    <_>
      <rects>
        <_>
          19 42 6 8 -1.</_>
        <_>
          22 42 3 8 2.</_></rects>
      <tilted>0</tilted></_>
    <_>
      <rects>
        <_>
          23 31 2 10 -1.</_>
        <_>
          23 36 2 5 2.</_></rects>
      <tilted>0</tilted></_></features></cascade>
</opencv_storage>
